svm_type c_svc
kernel_type rbf
gamma 0.007
nr_class 2
total_sv 85
rho -1.14399
label 0 1
probA -3.98771
probB -0.247685
nr_sv 58 27
SV
2.038209297988264 1:0.614244 2:-0.992247 3:1.33251 4:0.0555262 5:0.0243853 6:0.126726 7:0.0547322 8:-0.0972101 9:0.251293 10:-1.3564 11:0.748454 12:0.539376 13:0.61088 14:0.467874 15:0.00383208 16:-0.0993031 17:0.225569 18:1.47555 19:-1.18194 20:1.46954 21:-0.958993 22:0.966525 23:1.21297 24:-0.0938026 25:0.259323 26:-0.986175 27:0.0142582 28:-1.42507 29:1.45182 30:0.730038 31:-0.669349 32:-0.0610775 33:-0.959167 34:-0.557227 35:-0.259844 
0.2836969346643353 1:0.939197 2:-0.675235 3:0.63355 4:0.605526 5:1.28415 6:-1.79521 7:-0.0916515 8:1.87831 9:-1.6558 10:1.22006 11:-1.37473 12:-0.325331 13:0.17166 14:-1.1784 15:0.126442 16:-0.55995 17:-1.00389 18:-0.587668 19:0.0676549 20:-1.23903 21:2.04063 22:0.0684462 23:0.541375 24:-1.75461 25:0.176532 26:-0.787576 27:0.786498 28:0.621194 29:0.123141 30:-1.51923 31:0.0255253 32:0.946452 33:0.66443 34:-0.721907 35:0.943945 
1.343398248769134 1:0.709207 2:0.142677 3:-1.25573 4:-0.904454 5:2.13699 6:-0.747967 7:-1.10383 8:1.23669 9:3.7792 10:0.25027 11:-0.54111 12:0.140776 13:2.04067 14:0.148488 15:0.165675 16:0.843221 17:-0.159754 18:0.945952 19:-0.185014 20:-0.673976 21:-1.32421 22:-0.605532 23:0.646864 24:1.32015 25:-0.144057 26:-0.174801 27:2.48243 28:1.39187 29:-2.43583 30:0.943843 31:0.515493 32:-0.673398 33:-0.560002 34:-1.94038 35:-1.25478 
2.55 1:0.258197 2:0.448678 3:-1.56913 4:-2.27582 5:2.0126 6:-1.21121 7:-3.49246 8:-0.379975 9:-0.524321 10:0.581902 11:-0.698048 12:0.0798416 13:-0.0188855 14:-0.56376 15:-0.992626 16:0.201839 17:-1.51361 18:-0.443434 19:0.972667 20:0.406385 21:0.965156 22:-0.40691 23:1.46909 24:-0.746395 25:1.03226 26:0.330423 27:0.526552 28:-1.0895 29:-0.0142152 30:-0.568259 31:1.39091 32:0.869988 33:-1.02356 34:-2.39479 35:-0.843473 
0.7443560323288067 1:-0.307597 2:0.647445 3:-2.20834 4:-2.85969 5:1.29276 6:-2.50322 7:-1.48671 8:-2.174 9:-1.46333 10:1.20609 11:-1.3626 12:-0.789773 13:1.81474 14:-0.722446 15:-0.203071 16:-1.01088 17:-0.663061 18:-0.825818 19:0.233077 20:0.394148 21:1.05145 22:-1.78518 23:1.15818 24:-0.757452 25:-1.28381 26:-1.14827 27:-1.08857 28:0.117815 29:-0.432261 30:1.06198 31:-0.609705 32:0.880405 33:0.577547 34:-0.028017 35:0.912339 
2.55 1:-1.44162 2:0.804375 3:-1.9887 4:-2.68272 5:0.322299 6:1.15941 7:0.933424 8:-0.986689 9:1.56926 10:0.244689 11:-0.863443 12:-0.540593 13:0.518353 14:-0.761382 15:0.12895 16:-1.77778 17:-0.533083 18:1.53902 19:1.38715 20:0.940743 21:1.38225 22:-2.11896 23:1.68104 24:-0.0205415 25:-0.128901 26:0.145954 27:1.40492 28:-0.795122 29:-0.165784 30:-1.59367 31:-2.31355 32:0.468989 33:-0.226212 34:1.7703 35:1.30555 
0.08965775634568997 1:-1.80747 2:0.819118 3:-1.44298 4:-1.84268 5:0.0574268 6:2.19573 7:2.13997 8:-0.803234 9:1.17468 10:0.201469 11:-1.24791 12:-0.876102 13:0.840498 14:-0.472659 15:0.880678 16:-0.838903 17:-0.287424 18:1.5685 19:0.690722 20:1.44432 21:0.681549 22:-0.5359 23:1.41911 24:-0.24939 25:0.626314 26:1.34883 27:1.31516 28:-1.35694 29:-1.55304 30:0.453933 31:-1.20986 32:0.00141316 33:-0.711764 34:0.066891 35:0.185011 
0.1822200977850207 1:-1.94535 2:0.541785 3:-1.48096 4:0.661781 5:-0.785536 6:1.37592 7:1.76378 8:-0.00591858 9:1.52861 10:0.288435 11:-1.00951 12:-1.34544 13:-0.176222 14:-2.26496 15:-1.2748 16:0.219887 17:-1.08415 18:1.34384 19:0.0941467 20:0.191048 21:1.4339 22:-0.114078 23:0.633322 24:-0.150818 25:1.36602 26:1.63119 27:-0.590054 28:-2.13615 29:-1.33382 30:0.893763 31:0.704233 32:0.159372 33:2.0947 34:-0.852743 35:-0.14559 
1.065609927401481 1:0.71559 2:-1.0599 3:1.31014 4:0.128906 5:-0.120517 6:1.19733 7:-0.850392 8:0.308826 9:-0.532482 10:-0.535515 11:1.46971 12:-0.779254 13:-0.524671 14:0.716598 15:-1.74089 16:0.229709 17:0.623309 18:-0.266478 19:-0.729457 20:0.239901 21:-0.751211 22:0.511441 23:1.11599 24:1.52275 25:-2.03081 26:0.0461277 27:0.696578 28:0.414623 29:0.451494 30:-0.00113243 31:0.469866 32:-1.68866 33:0.33138 34:0.544101 35:1.36562 
0.2826885360582294 1:0.645361 2:-1.09396 3:1.14902 4:0.00400586 5:-0.0372105 6:-0.366926 7:0.00736001 8:0.1932 9:0.0863092 10:-0.632056 11:1.3426 12:-1.0172 13:0.0566005 14:-0.363016 15:-1.70227 16:-0.166909 17:0.163682 18:-0.718671 19:-0.923753 20:-0.561906 21:-1.13349 22:-0.558891 23:-0.26616 24:-0.0682444 25:0.640221 26:-0.475358 27:0.464027 28:-1.68389 29:0.364837 30:0.670666 31:-0.391442 32:-0.683393 33:-0.271136 34:0.512721 35:-0.449187 
0.6540907889024675 1:0.644578 2:-1.07799 3:1.22283 4:0.0259299 5:0.0435644 6:0.346099 7:-0.00229366 8:0.194161 9:0.288597 10:-1.47295 11:0.616993 12:-0.3695 13:0.567244 14:0.293717 15:-1.51152 16:-0.271499 17:1.88614 18:0.0755273 19:-1.36869 20:-0.614576 21:-0.620593 22:0.368785 23:1.95423 24:-0.177506 25:0.139862 26:-0.308486 27:0.887536 28:-0.695997 29:-0.51352 30:-1.11852 31:0.369741 32:0.473215 33:0.376801 34:-0.441767 35:0.450397 
0.282967369434002 1:0.671828 2:-1.09163 3:1.16043 4:0.134419 5:-0.134226 6:-0.479896 7:0.238731 8:-0.287805 9:-0.878234 10:1.17312 11:0.259342 12:-1.87695 13:-0.520485 14:-0.249702 15:1.30564 16:-0.933019 17:-0.671454 18:0.0664742 19:0.3028 20:-0.988836 21:1.23689 22:-0.0710761 23:-1.03223 24:0.169379 25:1.52739 26:-1.13092 27:-0.490934 28:-0.0369246 29:-0.186524 30:0.0167852 31:0.0903859 32:2.17379 33:-1.51049 34:-0.632888 35:0.995788 
0.2335604619808276 1:0.94229 2:-0.953219 3:0.698806 4:0.79033 5:0.722225 6:-1.16741 7:0.428937 8:1.79764 9:-0.64239 10:1.18314 11:-0.303549 12:1.61775 13:0.908766 14:0.149042 15:0.236644 16:-0.356022 17:-1.48291 18:-1.55161 19:1.2718 20:-0.282025 21:0.992505 22:0.324042 23:-1.08248 24:-2.02681 25:-2.06588 26:0.364761 27:0.100237 28:-1.12275 29:-0.394587 30:-0.317883 31:1.0574 32:-0.879388 33:-0.0280931 34:0.167654 35:2.10703 
2.55 1:0.701158 2:0.220805 3:-1.45735 4:-1.53316 5:2.44027 6:-1.1344 7:-2.76435 8:0.868673 9:1.10634 10:0.438151 11:0.966896 12:0.461378 13:2.55726 14:0.275281 15:-0.924154 16:0.47774 17:2.41931 18:-0.244686 19:-0.409892 20:-0.317662 21:1.12311 22:0.213094 23:0.345661 24:0.462574 25:-0.643814 26:-0.0195277 27:0.150811 28:0.503286 29:-1.70469 30:-1.17079 31:-2.10224 32:0.255377 33:-1.76591 34:-2.23656 35:0.23075 
0.1909978083182122 1:-1.88757 2:0.711566 3:-1.71701 4:-1.60585 5:-0.559125 6:0.305644 7:2.43771 8:-1.68747 9:-1.05578 10:0.824608 11:-1.26582 12:-1.64431 13:-0.519403 14:-0.164166 15:-0.819833 16:-0.346457 17:0.0691634 18:1.76524 19:-0.10174 20:0.374182 21:1.69891 22:-1.50731 23:1.10557 24:-1.26583 25:-1.21636 26:0.192748 27:-0.23861 28:-0.0826771 29:-0.697374 30:1.48785 31:0.069973 32:0.475126 33:-0.0498725 34:2.54194 35:0.24038 
2.41686876662498 1:-1.98191 2:0.592117 3:-1.7222 4:-0.461545 5:-0.843388 6:0.0110552 7:2.91493 8:-0.861657 9:-0.333239 10:-0.168216 11:-0.298395 12:-0.013349 13:-0.77502 14:0.152952 15:-0.718952 16:-0.0417003 17:0.492625 18:0.373868 19:-0.99821 20:0.613955 21:2.96816 22:0.781199 23:-0.703627 24:-0.767478 25:-1.14503 26:2.43681 27:2.69198 28:2.15918 29:-0.40941 30:0.327701 31:0.699087 32:0.158846 33:-1.8475 34:0.265324 35:-1.53453 
0.8777132395475467 1:-1.51681 2:0.317555 3:-1.16122 4:1.67166 5:-1.09501 6:0.325607 7:2.39673 8:-0.800108 9:-1.85378 10:0.665566 11:-2.32053 12:1.31807 13:-1.28512 14:0.299709 15:-0.558557 16:0.928987 17:1.69838 18:-0.924213 19:0.356173 20:0.553863 21:-0.722123 22:0.571816 23:-1.08462 24:0.145062 25:-0.21863 26:0.493127 27:0.841722 28:-2.29994 29:-0.523218 30:0.393127 31:0.358822 32:-2.01814 33:0.521251 34:0.006956 35:-0.639671 
1.417159056682827 1:-1.14029 2:0.106949 3:-1.27178 4:1.93355 5:-1.45532 6:-0.406803 7:0.667446 8:-1.09076 9:-0.829293 10:-0.0315734 11:-1.73715 12:-0.809963 13:-0.355946 14:0.677833 15:1.43797 16:0.656128 17:1.66994 18:0.493302 19:0.421173 20:2.16545 21:-0.457103 22:0.474665 23:-2.1021 24:0.862093 25:-0.973658 26:0.0776218 27:0.338002 28:-0.662512 29:-1.6336 30:0.263617 31:0.976893 32:0.474901 33:-0.109274 34:-1.1176 35:0.304212 
0.828503168928075 1:-0.713602 2:-0.156997 3:-1.23554 4:2.18878 5:-1.81338 6:0.175368 7:0.650464 8:-1.08399 9:0.660134 10:-0.117201 11:-0.800776 12:-2.15722 13:1.03386 14:1.00204 15:0.905238 16:0.277121 17:0.297711 18:0.443069 19:1.24849 20:-0.980661 21:-1.31479 22:1.42348 23:1.6786 24:0.362842 25:0.0570238 26:-1.98749 27:0.249783 28:-0.0817975 29:1.06398 30:0.793329 31:-0.471554 32:-0.0159029 33:0.295425 34:1.92712 35:-1.33576 
1.300266805369757 1:-0.315194 2:-0.399804 3:-1.01346 4:2.04491 5:-1.67149 6:0.912305 7:-0.366025 8:0.422283 9:0.835485 10:-0.91727 11:0.317879 12:-1.30221 13:1.11167 14:0.803153 15:0.54353 16:-0.382197 17:-1.15596 18:0.111517 19:0.698029 20:0.127842 21:-1.86482 22:0.319141 23:-0.236396 24:-1.07169 25:-0.929794 26:0.318904 27:-0.00787122 28:0.582072 29:0.457562 30:0.990336 31:-0.606268 32:-1.49469 33:-1.53922 34:-1.83902 35:-2.04561 
2.55 1:0.685096 2:-1.06296 3:1.22371 4:-0.115087 5:0.0226921 6:-0.100172 7:-0.0960321 8:0.342413 9:-0.051915 10:-1.61817 11:0.679203 12:0.685117 13:-0.076682 14:-0.774797 15:-0.852796 16:-0.133352 17:0.599284 18:-0.242398 19:1.7786 20:0.568574 21:0.135592 22:-0.282846 23:1.1565 24:0.542345 25:-1.47348 26:-0.00563117 27:-1.06081 28:0.637906 29:0.0248918 30:-0.782842 31:1.02676 32:0.657292 33:1.52714 34:0.277076 35:-0.782946 
0.4445020040648857 1:0.726546 2:-1.10458 3:0.82046 4:0.437928 5:-0.0433802 6:-0.408461 7:0.950558 8:0.458804 9:-0.279499 10:1.00129 11:0.824489 12:-0.468718 13:1.30714 14:2.03624 15:1.36045 16:0.0246251 17:0.716907 18:-0.877599 19:1.20664 20:-1.17191 21:0.592829 22:1.60289 23:-0.381688 24:0.126022 25:1.32208 26:1.32778 27:-0.280476 28:-0.797916 29:-0.393679 30:-1.85729 31:-0.689981 32:0.357193 33:0.682874 34:1.2111 35:0.424991 
2.55 1:0.856126 2:-1.0322 3:0.803958 4:0.677463 5:0.444367 6:-0.0338133 7:0.610502 8:1.46429 9:0.42501 10:1.11974 11:0.357982 12:1.5816 13:1.33958 14:2.42466 15:0.573838 16:-0.379827 17:0.511896 18:0.35368 19:1.90028 20:-1.16061 21:-0.128009 22:0.768364 23:0.0455765 24:-0.88994 25:-0.764483 26:1.04143 27:-0.855839 28:0.440568 29:0.235571 30:1.48583 31:1.36704 32:-0.271557 33:2.08605 34:-0.845116 35:-0.201812 
0.2837287566747977 1:0.96978 2:-0.854412 3:0.263826 4:0.59645 5:1.15189 6:-2.11031 7:-0.205934 8:2.12645 9:-2.35215 10:1.06485 11:-0.599465 12:0.36737 13:0.893865 14:-0.0723926 15:-0.482545 16:-1.11658 17:-1.9515 18:-2.52441 19:2.39246 20:-0.351525 21:0.290991 22:-0.371758 23:0.969941 24:-1.13212 25:-0.839409 26:-1.54973 27:0.698097 28:0.917223 29:1.02239 30:-0.16367 31:0.893545 32:0.924636 33:-0.498253 34:0.166418 35:0.725743 
2.55 1:0.628852 2:0.108821 3:-1.17045 4:-1.56293 5:2.66555 6:-0.263211 7:-3.13242 8:2.09312 9:3.17085 10:0.889192 11:0.924495 12:2.07379 13:2.14169 14:0.44219 15:-1.7985 16:1.162 17:0.818655 18:0.47344 19:-0.122617 20:0.437937 21:1.52448 22:-0.864149 23:0.740663 24:-0.603015 25:-1.02673 26:-0.418485 27:-1.90558 28:0.700415 29:-1.2865 30:1.3626 31:0.224948 32:-0.00286956 33:-1.0789 34:-0.486417 35:-1.1672 
0.224688925837508 1:0.141828 2:0.449381 3:-2.00671 4:-2.45901 5:2.2446 6:-3.28464 7:-2.2819 8:-1.27345 9:-3.42276 10:0.301529 11:-1.32825 12:-0.735021 13:0.988993 14:-0.613161 15:-0.618421 16:-0.567024 17:1.0077 18:-0.241198 19:-0.100914 20:0.987064 21:0.683821 22:-2.05334 23:0.16029 24:0.535219 25:-0.933573 26:1.5267 27:-1.54273 28:0.0750637 29:0.285324 30:0.307456 31:0.384669 32:0.41427 33:-0.18729 34:0.260167 35:1.63063 
0.1764567803487916 1:-0.479799 2:0.714676 3:-2.45715 4:-3.1437 5:1.73934 6:-1.75463 7:-1.74348 8:-1.52748 9:1.73404 10:0.803607 11:-0.644013 12:-0.661607 13:1.62158 14:-0.854423 15:0.219173 16:-1.55516 17:-0.73693 18:0.617393 19:-0.343168 20:0.774191 21:0.0155628 22:-1.71288 23:2.5746 24:1.05162 25:-0.846882 26:-1.7374 27:0.454489 28:-0.302606 29:-0.654668 30:0.102898 31:-0.49721 32:-0.75376 33:-0.277961 34:-0.693478 35:0.506839 
0.3559132754920266 1:-1.08303 2:0.869165 3:-2.34892 4:-3.05011 5:0.995518 6:0.460806 7:0.238774 8:-2.24625 9:2.51063 10:0.760462 11:-0.776254 12:-0.963653 13:1.42366 14:-1.09728 15:0.0763012 16:-1.94185 17:-0.806998 18:0.570588 19:-0.602959 20:0.609969 21:-0.240231 22:-1.65726 23:0.788904 24:-0.0306639 25:-1.15118 26:-1.42133 27:-0.578293 28:-0.11471 29:0.457441 30:-0.0737393 31:-0.162363 32:0.27886 33:-0.114407 34:1.07791 35:0.911549 
1.880925722120633 1:-1.9848 2:0.969055 3:-1.55989 4:-1.93621 5:0.0868633 6:1.8814 7:1.72719 8:-1.25175 9:0.647 10:0.0762964 11:-0.580613 12:-0.740739 13:0.86227 14:-1.04234 15:0.40993 16:-3.03627 17:-0.00208256 18:0.623413 19:-0.573131 20:0.501293 21:1.01171 22:-1.62078 23:0.290716 24:0.804185 25:1.15305 26:0.223429 27:0.751801 28:2.21304 29:1.47165 30:0.445084 31:1.20032 32:-2.71488 33:0.571757 34:-0.168985 35:0.272516 
0.8360928348504533 1:-1.34672 2:0.224947 3:-1.28981 4:1.8456 5:-1.95791 6:-0.0591676 7:0.808319 8:-1.42228 9:-0.0498942 10:0.848143 11:-1.86455 12:-0.280977 13:0.774786 14:1.10729 15:-0.0328418 16:0.473525 17:0.106124 18:0.37974 19:-0.749762 20:-0.177138 21:-0.623904 22:0.0901207 23:-0.376824 24:-0.645598 25:0.53096 26:0.122286 27:-1.55437 28:0.693427 29:1.53396 30:2.06779 31:0.199431 32:0.565048 33:1.32988 34:0.0244326 35:0.22551 
1.695018289076728 1:0.457725 2:-1.00198 3:0.390305 4:1.02213 5:-0.855353 6:2.13603 7:-1.66063 8:1.47414 9:0.796328 10:-0.975441 11:0.230303 12:0.309222 13:-2.02079 14:-0.775514 15:0.499327 16:-0.51944 17:-0.149252 18:-0.127592 19:-0.0540189 20:-0.0999544 21:-0.090699 22:-1.8728 23:-0.014124 24:0.165429 25:-1.09892 26:0.496343 27:1.33136 28:0.876288 29:-0.02921 30:0.169429 31:1.51235 32:-0.907086 33:0.297722 34:0.938795 35:0.101112 
2.55 1:0.62595 2:-1.04463 3:1.15567 4:0.234859 5:-0.0370704 6:1.20943 7:-1.07608 8:0.884318 9:-0.769386 10:-1.55488 11:0.201007 12:0.36959 13:0.667322 14:-0.295959 15:-0.340112 16:-0.126798 17:0.481029 18:0.727901 19:-0.748103 20:-0.792495 21:0.215583 22:0.78878 23:0.0589438 24:-1.17002 25:-0.307117 26:-0.0551234 27:0.887675 28:-1.39637 29:-0.137521 30:0.159408 31:0.50617 32:2.09759 33:0.364978 34:1.06331 35:0.832257 
0.01992169901922933 1:0.633155 2:-1.03994 3:1.2239 4:0.0549735 5:-0.0100241 6:0.302182 7:-0.45776 8:0.0762702 9:-1.02738 10:-1.36811 11:-0.288831 12:1.23465 13:0.189961 14:-1.67843 15:0.684889 16:-0.466926 17:-0.630002 18:-0.241895 19:0.43532 20:-1.43057 21:0.437531 22:-1.77482 23:-0.78742 24:0.213569 25:-0.445125 26:0.70044 27:0.129947 28:-0.257178 29:-1.41662 30:0.425216 31:-0.837677 32:-0.714077 33:0.346469 34:-1.16437 35:-0.839655 
2.55 1:0.600537 2:-1.03067 3:0.999347 4:0.0388348 5:0.0234676 6:0.177223 7:-0.015117 8:0.0697864 9:-0.0249479 10:-1.39747 11:0.537455 12:0.679573 13:0.070234 14:-1.23453 15:-0.684651 16:-1.28551 17:0.677144 18:-0.906805 19:-0.570873 20:-1.24514 21:0.851274 22:-0.813028 23:-0.452042 24:0.510331 25:0.559924 26:-0.294732 27:1.60163 28:-0.469505 29:-0.0627491 30:0.494153 31:-0.0464352 32:-0.424483 33:0.256574 34:-1.10968 35:-1.21369 
2.55 1:0.435188 2:-0.928742 3:0.545091 4:-0.664431 5:0.611948 6:-1.12377 7:-1.26383 8:1.93331 9:-0.403262 10:0.699861 11:-2.08689 12:0.258823 13:-1.57316 14:0.0144112 15:-0.216442 16:0.526533 17:2.48991 18:-0.67224 19:0.750843 20:1.53202 21:-1.61446 22:0.237408 23:-0.763861 24:1.06427 25:-0.0330902 26:-0.449741 27:0.674255 28:-2.44275 29:-0.607965 30:-0.471618 31:0.697757 32:-0.609177 33:0.331712 34:0.0340631 35:-0.378361 
0.4279680766783857 1:0.212588 2:-0.754938 3:0.372396 4:-1.11397 5:1.12518 6:-0.653207 7:-1.14457 8:1.54108 9:0.533681 10:0.182121 11:-0.471676 12:-0.0213028 13:-1.48217 14:-0.151514 15:-0.795086 16:-0.646361 17:-0.451266 18:-0.450527 19:-2.71317 20:1.94546 21:-2.13832 22:-0.981979 23:0.0509495 24:-0.313492 25:-1.44178 26:2.80437 27:-1.02857 28:-0.834522 29:-0.571062 30:-0.998441 31:-0.264642 32:1.3492 33:1.32758 34:-0.488606 35:0.00789806 
2.55 1:-0.339166 2:-0.204232 3:-0.190006 4:-1.34745 5:2.04849 6:-1.30862 7:0.191553 8:1.45072 9:-0.509602 10:-0.0298313 11:0.247178 12:-1.34101 13:-0.918096 14:0.925419 15:0.740365 16:-1.96201 17:0.14723 18:0.724939 19:-1.12859 20:0.404367 21:0.304565 22:-2.00545 23:-0.770929 24:1.79446 25:-0.602618 26:-0.946435 27:-0.537496 28:0.698536 29:1.66976 30:-1.19715 31:-1.50904 32:0.399435 33:0.849784 34:-2.0764 35:-0.74043 
2.55 1:-0.503393 2:0.138461 3:-0.725959 4:-0.817047 5:2.25891 6:-2.09374 7:1.35134 8:0.628744 9:-0.889013 10:0.4371 11:-0.0426728 12:0.145848 13:1.98463 14:0.874007 15:0.241193 16:0.411424 17:-1.66484 18:-1.65842 19:-1.11135 20:-0.457353 21:0.533489 22:-1.05657 23:-0.0367928 24:0.118761 25:-2.41503 26:0.516816 27:-0.185234 28:-1.49886 29:-0.0857707 30:-1.06257 31:0.358527 32:-0.336194 33:-1.54857 34:1.30624 35:-0.66715 
0.03883675300128455 1:-0.503162 2:0.522988 3:-0.720977 4:0.0195034 5:2.53975 6:0.0513861 7:2.13109 8:0.840894 9:2.43098 10:0.589288 11:-0.848249 12:0.861498 13:0.674919 14:0.120386 15:-1.13286 16:-0.379939 17:-0.598302 18:-1.70663 19:-1.52797 20:-0.000186887 21:1.74385 22:-1.74695 23:-0.350537 24:1.64979 25:-1.07377 26:0.0585885 27:-0.701721 28:-0.344725 29:-0.588593 30:1.56013 31:0.453622 32:0.208409 33:-0.528536 34:0.347163 35:-3.17348 
0.2876565772743138 1:1.55364 2:1.18917 3:-1.85901 4:2.07111 5:0.0492607 6:0.424146 7:-1.35609 8:-0.690502 9:1.14555 10:0.911339 11:-1.76624 12:1.03193 13:-0.731341 14:0.166486 15:-1.0869 16:0.671241 17:1.63609 18:-1.83785 19:-0.707237 20:1.37186 21:-1.8738 22:0.396099 23:1.25588 24:-0.0171524 25:0.494157 26:-1.03913 27:-0.149882 28:-0.943425 29:0.129615 30:1.13654 31:-0.674277 32:-0.691186 33:-0.275538 34:0.647298 35:1.35988 
2.55 1:-0.48474 2:-0.318208 3:-0.137823 4:-1.62648 5:2.01724 6:0.14571 7:-0.069742 8:1.55479 9:0.449163 10:0.424825 11:-0.0421286 12:0.945034 13:-2.19256 14:-1.01607 15:0.0464555 16:-0.741166 17:-0.697705 18:0.454628 19:-0.0559578 20:0.119764 21:-0.504453 22:1.66589 23:0.555082 24:1.75245 25:-0.346053 26:0.703613 27:-0.798052 28:-0.0419754 29:-0.349115 30:0.986781 31:-2.48539 32:0.610722 33:-1.25107 34:-1.70019 35:0.941973 
0.5441592706910469 1:-0.665062 2:0.0273684 3:-0.414832 4:-0.898915 5:2.27827 6:-1.06688 7:1.8535 8:0.781228 9:-1.37334 10:1.19566 11:0.41591 12:-1.41854 13:-0.0977765 14:-0.550346 15:1.40765 16:0.4702 17:-1.0775 18:-0.052255 19:-2.09181 20:0.656453 21:1.14798 22:1.4856 23:-0.993898 24:0.679837 25:-0.402555 26:-0.00745678 27:0.931703 28:-1.10771 29:-0.484246 30:-0.279335 31:0.39735 32:-1.01852 33:0.829889 34:-0.293695 35:1.15083 
1.87149702739983 1:-0.694403 2:0.397815 3:-0.435374 4:-0.130923 5:2.44522 6:-0.0498318 7:1.95648 8:0.497785 9:1.15285 10:0.317791 11:0.541691 12:-0.676528 13:1.24007 14:0.600075 15:-0.928926 16:0.473654 17:0.272939 18:-0.115165 19:-0.165696 20:-1.73341 21:2.05189 22:0.402403 23:-0.394793 24:1.44991 25:-0.307652 26:-0.0979832 27:-3.98045 28:-2.57105 29:-0.263404 30:-0.858011 31:1.04252 32:0.909018 33:-0.943868 34:0.802491 35:-1.9142 
1.488659846743028 1:-0.0558269 2:0.951103 3:-0.715976 4:2.12162 5:1.40674 6:-0.526865 7:2.44133 8:-2.46849 9:-0.00426301 10:0.286773 11:-1.11409 12:-1.25562 13:-1.03715 14:-0.892104 15:-1.08093 16:0.483444 17:1.08166 18:1.17357 19:0.0645172 20:0.59381 21:-1.45757 22:0.628922 23:-2.48721 24:0.335478 25:-1.47956 26:0.871247 27:-0.674117 28:-0.556077 29:-1.55688 30:-1.26478 31:-0.552463 32:1.12461 33:0.5333 34:-0.00691174 35:0.288952 
0.2957427147243874 1:0.515764 2:1.08437 3:-1.1905 4:2.92583 5:0.853059 6:-1.85013 7:2.04873 8:-1.67337 9:-1.49873 10:0.925806 11:-1.57052 12:0.535563 13:-0.2231 14:0.255572 15:-1.74401 16:1.34424 17:0.320996 18:-1.29797 19:-0.863744 20:-0.2871 21:-1.24914 22:-0.123321 23:-0.344738 24:0.516624 25:0.0647961 26:0.468281 27:2.64722 28:1.06501 29:0.68948 30:-0.156726 31:-0.502336 32:0.259522 33:-0.350838 34:-0.726725 35:0.297947 
0.5650677134960914 1:1.94912 2:0.940922 3:-1.06858 4:0.158179 5:-0.401917 6:2.96439 7:-0.719249 8:0.851913 9:2.71619 10:0.888563 11:-0.0414638 12:0.811131 13:0.0970841 14:0.462722 15:-0.525588 16:-1.03055 17:1.32084 18:-1.27794 19:-0.49457 20:-0.641725 21:0.334706 22:-1.53627 23:0.795286 24:0.409703 25:-0.186614 26:0.424666 27:-0.636293 28:0.133342 29:-0.0998841 30:2.13473 31:-1.402 32:-1.72057 33:0.290188 34:0.707264 35:3.5148 
0.509508981690407 1:1.81257 2:0.697548 3:-0.922521 4:-0.676263 5:-1.67529 6:0.610832 7:-2.12491 8:-3.84168 9:-2.66606 10:0.159815 11:0.833637 12:-0.851133 13:-0.245175 14:1.62101 15:1.06119 16:-2.82446 17:0.167849 18:-2.35307 19:-1.80655 20:-0.468791 21:0.244154 22:1.22885 23:0.14631 24:-0.947018 25:0.424885 26:0.884084 27:-0.990983 28:-0.273029 29:-0.361829 30:-0.789314 31:0.176737 32:0.523873 33:1.07416 34:1.64619 35:-1.26881 
0.1021456761903792 1:0.55409 2:-1.08766 3:0.718611 4:-0.0748789 5:-0.0310946 6:-0.368952 7:0.00785451 8:-0.182227 9:-0.677199 10:-0.713113 11:0.04807 12:-1.04378 13:-2.6445 14:-1.19681 15:0.0920574 16:0.17602 17:1.31763 18:-1.65842 19:1.67222 20:1.15911 21:1.00546 22:0.412936 23:-0.0314476 24:-1.50083 25:-0.109622 26:0.268089 27:-1.89165 28:0.533697 29:0.124756 30:-1.395 31:0.157134 32:-2.50859 33:-1.49801 34:-0.856025 35:-0.885998 
2.55 1:-0.545825 2:-0.191546 3:0.0115724 4:-1.6633 5:2.17473 6:-0.0485363 7:0.0120632 8:1.00545 9:0.133187 10:0.975351 11:-0.781644 12:0.519479 13:-1.10943 14:-2.00989 15:0.182465 16:-0.197925 17:0.62625 18:0.172419 19:-0.00119858 20:-0.714298 21:0.895407 22:2.72125 23:2.78537 24:0.277354 25:-0.165454 26:-0.00900519 27:-1.5063 28:-0.532385 29:-1.63188 30:0.442227 31:-1.18211 32:-1.84233 33:-1.69699 34:0.911553 35:1.15501 
2.55 1:-0.672769 2:0.158642 3:-0.211276 4:-0.627399 5:2.30923 6:-0.852096 7:2.63883 8:0.400008 9:-0.909907 10:0.702136 11:0.413497 12:0.196948 13:2.34356 14:0.77251 15:-0.291561 16:1.20931 17:-0.453145 18:-0.662697 19:-0.518646 20:0.115376 21:0.48986 22:0.300823 23:-0.513951 24:2.29001 25:-0.811474 26:-0.817897 27:-0.178391 28:-0.24525 29:-0.713939 30:-2.08795 31:-0.943301 32:-0.955286 33:-0.975931 34:0.725506 35:-0.105798 
2.55 1:-0.629408 2:0.486198 3:-0.167242 4:0.238889 5:2.1573 6:0.206249 7:2.20684 8:-0.462947 9:1.19964 10:1.06608 11:0.933243 12:0.146643 13:1.72297 14:0.642262 15:-0.803424 16:0.709402 17:2.39233 18:1.10511 19:-0.658335 20:-0.172456 21:1.69473 22:1.11141 23:-1.78926 24:0.998008 25:1.20326 26:-1.20276 27:-0.952682 28:0.513324 29:-0.362464 30:-0.886526 31:-0.382741 32:-0.400324 33:-1.83541 34:-0.261638 35:-1.07165 
2.55 1:-0.504672 2:0.686248 3:0.0804841 4:0.652822 5:1.30137 6:1.01401 7:1.05469 8:-2.584 9:0.915726 10:0.843654 11:-0.372294 12:1.1797 13:-0.812243 14:-0.0830026 15:0.232391 16:-2.31064 17:-1.11513 18:-0.928808 19:1.76244 20:0.418344 21:-1.49255 22:0.820987 23:1.0143 24:-0.0375581 25:-0.561675 26:-0.573269 27:2.23509 28:-0.146378 29:0.888266 30:0.56578 31:1.9335 32:-0.393778 33:-0.65866 34:-0.899374 35:1.60345 
0.5250381534011002 1:-0.144783 2:0.86712 3:-0.470352 4:1.84897 5:1.17263 6:-2.15276 7:3.047 8:-0.393098 9:-3.58744 10:0.110099 11:-1.02298 12:-1.95258 13:0.967814 14:0.318061 15:0.218717 16:0.348172 17:0.362842 18:1.21333 19:0.602604 20:-0.452696 21:0.359676 22:0.0477725 23:-2.00969 24:-0.153633 25:-1.43738 26:0.440004 27:-0.865863 28:1.30963 29:1.03979 30:-0.334278 31:0.144491 32:0.932894 33:0.7515 34:-0.684183 35:-0.212989 
0.1690447574438961 1:0.944416 2:0.903319 3:-1.31611 4:2.83174 5:-0.108341 6:-1.42449 7:0.220471 8:-1.13984 9:0.500971 10:0.566523 11:-1.58932 12:1.26192 13:-0.749577 14:-0.244111 15:-2.16889 16:1.10773 17:-0.0989203 18:-0.59481 19:-0.404677 20:-0.596384 21:-0.224973 22:-0.5843 23:-0.0820718 24:-0.586644 25:1.11359 26:-0.396962 27:1.72802 28:1.89289 29:-1.02135 30:0.907215 31:1.41259 32:-1.17357 33:-0.276443 34:-0.557233 35:-1.18527 
2.55 1:1.55935 2:0.828326 3:-1.4444 4:1.31098 5:-0.339257 6:-0.382057 7:-1.38182 8:-0.282407 9:-0.360458 10:1.25338 11:-1.20769 12:0.892199 13:-0.132222 14:0.19888 15:0.0131627 16:1.03959 17:1.30193 18:-2.36225 19:0.560774 20:-1.88929 21:0.40337 22:-2.23579 23:1.80997 24:1.77319 25:1.42166 26:-1.53193 27:-0.0206435 28:1.27806 29:0.423323 30:-1.58531 31:0.0335349 32:2.25715 33:-1.94074 34:1.09504 35:0.0516428 
0.2821527423406812 1:1.81751 2:0.665468 3:-1.22317 4:-0.0205235 5:-0.737342 6:1.56835 7:-0.807201 8:-0.923099 9:0.266866 10:0.925836 11:-0.727865 12:1.13437 13:0.149352 14:0.416616 15:-0.935737 16:-1.09598 17:-1.43745 18:-0.830198 19:0.765469 20:-0.448032 21:-0.55154 22:0.173261 23:-0.0117722 24:1.16793 25:-2.04308 26:-1.72229 27:0.421931 28:0.502109 29:2.69482 30:0.374837 31:1.12508 32:-0.343746 33:0.638838 34:1.10513 35:-1.70974 
2.161480431140078 1:1.7635 2:0.518617 3:-0.952387 4:-0.256447 5:-1.02734 6:1.10544 7:-0.600489 8:-0.878933 9:-0.523946 10:1.06819 11:1.23093 12:0.882702 13:-0.390647 14:0.889783 15:0.896953 16:-0.392032 17:-1.21289 18:0.0141333 19:0.697582 20:0.201589 21:0.334829 22:-0.123179 23:-0.820748 24:1.36382 25:0.707514 26:1.14214 27:-1.44453 28:1.67459 29:-0.804857 30:2.31975 31:-0.630755 32:1.88397 33:0.167022 34:-1.51357 35:0.361958 
2.55 1:1.68551 2:0.315394 3:-0.760318 4:-0.378388 5:-1.40576 6:0.793292 7:-0.310175 8:-1.14534 9:-0.353131 10:0.812383 11:1.59012 12:-0.579335 13:1.11602 14:-0.0207402 15:1.45999 16:-0.268346 17:2.00765 18:-0.575771 19:-0.724069 20:0.190394 21:-0.0890142 22:0.301679 23:-0.0170145 24:-1.19119 25:1.87877 26:0.424538 27:1.64581 28:-0.542678 29:-0.0681231 30:0.623904 31:-1.21293 32:-0.484285 33:-1.10969 34:1.05151 35:-0.822994 
-6.75 1:0.510285 2:-0.767547 3:-0.27138 4:-0.134631 5:1.30478 6:-1.39529 7:-0.194691 8:1.63355 9:-0.090753 10:0.313257 11:-1.17837 12:1.22142 13:-0.564173 14:0.224741 15:-0.69437 16:-0.607589 17:1.63504 18:-1.14097 19:0.162829 20:-0.0654484 21:0.37671 22:-1.37174 23:0.188064 24:-0.391576 25:-1.60301 26:1.42489 27:2.01495 28:-0.51258 29:-2.50527 30:-1.20091 31:1.32386 32:1.06685 33:-2.37637 34:-1.29042 35:-2.93831 
-5.32016784309161 1:0.411823 2:-0.467139 3:-0.300126 4:-0.48252 5:1.97506 6:-0.0823653 7:-0.885663 8:2.01421 9:1.48808 10:0.309195 11:1.15509 12:0.300094 13:-1.66859 14:1.21248 15:0.272993 16:1.04885 17:0.13909 18:-0.141939 19:-0.175655 20:0.766142 21:-1.66963 22:-2.0973 23:0.266042 24:-2.00469 25:-0.61648 26:-2.01823 27:1.27209 28:-0.915073 29:-1.54945 30:-1.69974 31:-1.32806 32:0.886291 33:-0.454966 34:0.429451 35:1.18477 
-5.032262020387098 1:0.284396 2:-0.118747 3:-0.541517 4:-0.629857 5:2.29718 6:-0.92563 7:-0.374861 8:0.965272 9:-0.954892 10:0.846948 11:1.84351 12:0.425525 13:1.53371 14:-0.791107 15:0.0203212 16:1.18782 17:0.836337 18:-0.213323 19:0.820097 20:0.920567 21:0.729732 22:-0.824501 23:-0.477265 24:1.14841 25:-0.457228 26:0.0180712 27:-0.0127307 28:-0.467633 29:0.728357 30:0.42417 31:-1.34986 32:0.305106 33:-1.63172 34:0.230357 35:0.148754 
-6.75 1:0.0887399 2:0.273842 3:-0.628869 4:-0.976916 5:2.59386 6:-0.314776 7:-0.88355 8:0.888653 9:0.692633 10:0.329265 11:1.7355 12:0.667746 13:1.16132 14:0.814657 15:-1.15259 16:0.804721 17:1.74426 18:1.03243 19:-0.214325 20:1.44742 21:1.99465 22:-1.11193 23:-0.613349 24:0.500011 25:0.191972 26:-0.141336 27:0.259221 28:0.0568127 29:0.671109 30:0.245717 31:-1.8588 32:0.133353 33:-0.119556 34:-0.545178 35:0.884844 
-3.009887783654563 1:-0.14735 2:0.651739 3:-0.728067 4:-1.18259 5:2.49523 6:-0.361751 7:-0.523448 8:-0.30237 9:-0.0526915 10:-0.0710168 11:1.24376 12:-0.312523 13:0.871484 14:0.635043 15:0.73732 16:-1.11975 17:3.3454 18:-0.8807 19:-1.04344 20:0.796301 21:-1.22272 22:-0.377653 23:-0.124649 24:1.40169 25:-1.0539 26:0.933812 27:1.07599 28:-0.100716 29:-0.0124934 30:0.376401 31:-1.04221 32:-0.653774 33:1.05921 34:-0.903766 35:-2.2591 
-3.268946005547066 1:-0.410214 2:0.938269 3:-0.570202 4:-1.31878 5:1.88189 6:0.657655 7:-0.346456 8:-1.85311 9:1.15552 10:0.923296 11:1.20784 12:0.137538 13:2.40958 14:-0.386808 15:0.858104 16:0.633369 17:0.498603 18:-0.684557 19:0.481578 20:0.45231 21:-0.78191 22:0.384488 23:1.76043 24:0.0424461 25:1.00201 26:0.591939 27:0.415039 28:-0.172588 29:-0.963647 30:0.0474393 31:0.861357 32:0.132935 33:-1.25388 34:-0.938811 35:-1.66048 
-2.299380292653175 1:-0.898618 2:1.24557 3:-0.452926 4:-1.07907 5:0.644751 6:-0.179093 7:0.737958 8:-2.085 9:-1.00389 10:1.13889 11:1.11297 12:0.35969 13:-0.937057 14:-0.693057 15:0.974304 16:1.92509 17:-0.814918 18:1.93006 19:-1.2181 20:-1.17672 21:-0.187683 22:-1.16174 23:2.13555 24:-1.142 25:0.256749 26:1.26074 27:-0.372353 28:-0.0357345 29:0.347946 30:0.723198 31:-0.14632 32:-1.09735 33:-1.87968 34:0.183507 35:-0.634593 
-0.7724918712251595 1:-1.29178 2:1.31266 3:0.228835 4:0.0717956 5:-0.136989 6:0.475166 7:1.15154 8:-0.15052 9:-0.441986 10:0.955286 11:0.194645 12:0.814114 13:-0.49754 14:-1.18516 15:-0.727622 16:1.50719 17:-1.08942 18:0.840548 19:-0.559376 20:-2.33224 21:0.492423 22:-0.132258 23:0.329961 24:0.906817 25:-0.68269 26:-0.745816 27:-0.767006 28:-1.08081 29:-0.932874 30:0.158772 31:-1.02027 32:-0.883389 33:-1.25549 34:1.53292 35:-0.541426 
-2.561812711294713 1:-1.2142 2:1.3056 3:0.236151 4:0.41297 5:-0.0889167 6:0.0606435 7:0.869375 8:0.139619 9:-0.469124 10:0.539047 11:0.289218 12:0.177668 13:1.19291 14:-0.545723 15:0.0224237 16:2.05297 17:-1.12213 18:0.567822 19:-0.0578775 20:-0.935754 21:0.965197 22:1.0509 23:1.89952 24:0.209935 25:-0.395089 26:0.653397 27:0.743554 28:-0.983043 29:1.57815 30:0.360213 31:-1.69293 32:0.531638 33:0.592183 34:0.13621 35:-1.67002 
-3.329681792365944 1:-0.0324191 2:1.24063 3:1.03478 4:0.922138 5:-0.0703871 6:1.47361 7:-0.448063 8:0.0964065 9:0.572795 10:0.305628 11:0.210562 12:0.337254 13:-0.454958 14:0.86031 15:0.422427 16:-3.37391 17:2.52519 18:0.370377 19:0.238494 20:-1.9859 21:0.410722 22:0.627537 23:0.49036 24:-0.690511 25:0.731527 26:0.0863265 27:0.35487 28:0.441391 29:1.23861 30:1.11557 31:1.20503 32:-1.20071 33:-0.214558 34:0.929579 35:1.01424 
-1.54876872283098 1:0.11934 2:1.21182 3:1.34238 4:0.790282 5:-0.234938 6:1.25146 7:-0.33543 8:-0.500982 9:-0.251169 10:0.372851 11:0.587072 12:0.551752 13:-0.908217 14:0.00336625 15:0.0585136 16:-1.3531 17:2.07576 18:0.855446 19:-0.0860964 20:-0.479476 21:1.1898 22:0.574564 23:1.71384 24:-1.18823 25:-0.304194 26:0.655861 27:-0.504117 28:-0.302259 29:-2.51775 30:2.52249 31:1.20169 32:-1.12374 33:-0.313968 34:1.67584 35:0.346828 
-2.674138092126828 1:0.278183 2:1.14895 3:1.70075 4:0.356958 5:-0.255188 6:0.546071 7:-0.332529 8:-0.0210524 9:-0.443889 10:-0.211298 11:0.491414 12:-0.181664 13:-0.467466 14:-0.151139 15:1.71541 16:-1.7452 17:1.93691 18:-0.389504 19:-0.721676 20:0.456854 21:0.892189 22:0.30962 23:1.5274 24:-0.554852 25:-0.862423 26:1.41423 27:-0.972307 28:-1.01213 29:-0.832135 30:0.75899 31:2.86992 32:1.59164 33:-1.1881 34:3.00089 35:-0.234404 
-2.161954383270683 1:0.293819 2:1.13077 3:1.65805 4:0.042392 5:-0.087181 6:-0.451014 7:-0.0795808 8:0.0875083 9:-0.90131 10:0.428508 11:0.462626 12:0.747449 13:-1.37069 14:1.01759 15:0.121807 16:-1.93917 17:1.181 18:-0.0753856 19:0.155629 20:-0.404267 21:-0.368799 22:0.682651 23:-1.46389 24:-0.235116 25:-2.11237 26:-1.29156 27:-0.66598 28:0.136839 29:1.99123 30:-0.353211 31:2.47531 32:-1.03358 33:-0.992459 34:-3.35508 35:0.242579 
-1.397231929181704 1:0.277379 2:1.11264 3:1.5695 4:-0.0652944 5:-0.163248 6:-0.319526 7:-0.27387 8:-0.234393 9:0.149508 10:0.538281 11:1.14582 12:-0.133125 13:0.945435 14:1.72916 15:-1.14477 16:0.474543 17:1.65512 18:1.28926 19:1.15295 20:-1.33747 21:0.465119 22:-1.737 23:0.228585 24:-0.904144 25:2.47845 26:-1.09638 27:-1.35398 28:0.979543 29:-2.04916 30:-0.280905 31:0.648592 32:0.101622 33:0.906789 34:-2.01028 35:-1.47469 
-0.1532970977007553 1:-1.60987 2:1.19103 3:-0.15987 4:-0.257161 5:0.15763 6:-0.488591 7:0.0817772 8:0.540519 9:0.290747 10:0.372611 11:0.885753 12:0.522592 13:-0.742795 14:0.43253 15:-0.781666 16:-0.853775 17:-1.00101 18:-0.790199 19:-0.0792463 20:4.07414 21:0.442809 22:-0.238795 23:-0.836309 24:-0.491747 25:-0.041703 26:-0.886963 27:0.643356 28:2.17542 29:-0.778216 30:-1.28856 31:0.0999117 32:1.66804 33:-1.57633 34:-0.18328 35:0.458022 
-3.187122769253905 1:-1.45197 2:1.47575 3:-0.583452 4:0.265969 5:-0.279436 6:-0.987973 7:0.071339 8:-1.07793 9:-0.535442 10:1.01497 11:0.0896219 12:-0.734165 13:1.54159 14:-1.49717 15:-0.80344 16:0.118632 17:-0.48366 18:-0.596043 19:-0.0682411 20:-0.170199 21:0.605402 22:1.85904 23:-0.327046 24:1.87998 25:0.776876 26:-0.84501 27:0.379972 28:0.775621 29:-0.43567 30:-2.72536 31:1.3548 32:-0.724194 33:-1.42542 34:-0.33604 35:-0.336179 
-2.087987816466823 1:-1.40034 2:1.09949 3:-0.673921 4:0.00412756 5:-1.08354 6:0.354205 7:-0.355956 8:-0.376199 9:0.611018 10:0.72529 11:0.355271 12:0.847711 13:-1.0913 14:-0.253238 15:0.938012 16:-1.04829 17:-0.22189 18:0.335386 19:1.77908 20:-1.84659 21:-0.486287 22:1.46765 23:0.79398 24:0.502626 25:-0.979624 26:0.354286 27:1.3548 28:-1.5977 29:-0.00377642 30:2.7587 31:-0.922453 32:2.41466 33:-1.54426 34:-2.28848 35:0.291539 
-5.276076874493669 1:-1.38673 2:0.664527 3:0.46162 4:0.0358264 5:-0.823006 6:2.00192 7:0.0078714 8:0.521517 9:0.354177 10:0.675237 11:-0.972127 12:1.38071 13:-0.775773 14:-1.1419 15:-1.27074 16:-1.33561 17:-0.408335 18:-0.239961 19:0.452902 20:-1.35044 21:1.18325 22:0.928384 23:0.423372 24:1.03165 25:-0.965522 26:-2.01882 27:-2.17926 28:0.170218 29:-1.33213 30:-0.874557 31:-2.26339 32:0.460781 33:1.37634 34:0.748161 35:-0.383234 
-0.5525925126619689 1:-1.40871 2:0.681689 3:0.413044 4:-0.0036449 5:0.571 6:-0.848198 7:0.111435 8:0.752525 9:-0.484996 10:1.07821 11:1.10331 12:0.979639 13:0.149546 14:-0.479382 15:-0.28353 16:-0.640513 17:-0.898555 18:1.38891 19:-0.548201 20:2.09945 21:0.0776819 22:0.24939 23:-0.540359 24:1.46471 25:0.0842066 26:1.02854 27:-1.13052 28:2.05609 29:1.9118 30:-0.043402 31:1.10823 32:-0.23909 33:-1.49448 34:0.508128 35:0.901164 
-5.41783148349465 1:-1.2275 2:1.66866 3:-0.793499 4:0.347243 5:0.178632 6:-1.24301 7:0.180454 8:-1.03436 9:-0.187005 10:0.749378 11:0.0239672 12:-0.498764 13:2.46895 14:-0.293268 15:-0.872698 16:-0.207784 17:-0.211165 18:-0.81215 19:0.00089586 20:1.34385 21:-0.547075 22:-0.122537 23:-0.551814 24:0.682023 25:-1.55961 26:-1.55442 27:-1.98135 28:0.88109 29:0.658934 30:1.11881 31:0.292368 32:-1.42337 33:0.55525 34:-0.0395924 35:0.74484 
-0.468532777412895 1:-1.19793 2:1.68651 3:-0.652312 4:0.168737 5:0.078263 6:0.591515 7:-0.454247 8:-0.307611 9:2.07906 10:0.575594 11:1.45166 12:-0.504572 13:1.52009 14:-1.01441 15:-0.039088 16:-0.0226059 17:0.298586 18:0.138346 19:0.822625 20:0.681894 21:-0.00945956 22:1.54778 23:0.124969 24:0.702952 25:0.566203 26:1.85132 27:-1.04372 28:0.324995 29:-0.0623912 30:2.15829 31:1.08989 32:0.646596 33:2.28233 34:0.0655585 35:-1.18245 
-2.235125537012752 1:-1.16276 2:1.54557 3:-0.755332 4:0.0849702 5:-0.698333 6:-0.108341 7:-0.115813 8:-1.11242 9:0.14623 10:0.810713 11:0.508396 12:-0.887761 13:1.38597 14:-1.9046 15:0.506051 16:0.787433 17:-0.178733 18:-0.345594 19:1.16164 20:0.325789 21:0.630858 22:1.21392 23:1.185 24:0.167577 25:1.38287 26:1.2834 27:0.547027 28:0.956543 29:0.356372 30:-1.06783 31:1.31298 32:-1.11394 33:0.930943 34:0.621756 35:0.0121544 
-2.307380577520294 1:-1.22012 2:0.930596 3:0.106655 4:0.065291 5:-1.23078 6:0.587218 7:0.494852 8:-0.661219 9:-1.4533 10:0.880712 11:-0.585718 12:1.03879 13:-1.10721 14:0.128354 15:0.830457 16:-2.00612 17:-0.117882 18:0.421972 19:-0.118638 20:-1.59716 21:0.16624 22:1.93898 23:0.145963 24:0.969136 25:-2.71282 26:-0.562147 27:1.57922 28:-1.20927 29:1.587 30:-0.00735921 31:-1.71668 32:1.72168 33:0.803344 34:0.260034 35:-0.364967 
-2.108639168968895 1:-1.18771 2:0.767126 3:0.378435 4:0.183203 5:-1.1389 6:1.10939 7:0.300729 8:0.271602 9:0.592161 10:0.82688 11:-0.174441 12:0.133852 13:-0.688562 14:1.29995 15:1.02999 16:-2.71948 17:0.617168 18:0.806981 19:0.0279629 20:-0.492341 21:-1.23448 22:-1.66173 23:1.70823 24:-0.481415 25:1.40118 26:2.52478 27:-0.94698 28:-0.898376 29:-0.188558 30:-3.37467 31:0.841562 32:1.48992 33:-1.26102 34:-2.2159 35:0.734525 
-0.1353320417898399 1:-1.16124 2:0.66474 3:0.481738 4:0.15298 5:-0.728851 6:0.441285 7:-0.0765716 8:1.2302 9:-0.756441 10:1.21375 11:-0.168711 12:0.315816 13:-1.64988 14:-0.344986 15:0.500231 16:-0.668112 17:-0.61655 18:1.49429 19:-1.97267 20:-1.08791 21:0.162492 22:0.122108 23:-0.100647 24:0.0759666 25:-2.5381 26:-1.06756 27:0.447942 28:-1.24427 29:1.75838 30:-1.42012 31:-1.51207 32:-0.504152 33:2.13319 34:0.355006 35:-2.66852 
-2.232894638125245 1:-1.13509 2:0.633758 3:0.350219 4:0.151329 5:-0.24952 6:-0.48992 7:-0.00379767 8:1.43893 9:-1.05453 10:1.00786 11:-0.179795 12:0.258115 13:1.70002 14:-1.37998 15:1.18019 16:-1.42203 17:-0.487042 18:0.247224 19:0.0705286 20:0.702092 21:-1.07357 22:1.37649 23:-1.07731 24:0.314273 25:0.856789 26:0.104332 27:1.53336 28:2.68746 29:0.718552 30:-0.837093 31:1.24284 32:-0.28794 33:0.290431 34:0.0263951 35:-1.31794 
-2.278634564298405 1:-1.32232 2:1.34142 3:-0.218888 4:-0.235357 5:1.29284 6:0.702918 7:0.267662 8:-0.134246 9:1.6749 10:0.682427 11:1.0651 12:0.879061 13:-1.52656 14:0.377246 15:0.2831 16:0.990999 17:-0.853314 18:0.968572 19:0.446786 20:-1.07204 21:-1.45483 22:-0.386568 23:-2.37908 24:1.53807 25:0.840853 26:-1.00145 27:0.380705 28:-1.69876 29:-0.218457 30:0.176068 31:-0.0554342 32:0.0774043 33:0.40414 34:-0.974056 35:2.23035 
